tree
version=v4
num_class=1
num_tree_per_iteration=1
label_index=0
max_feature_idx=11
objective=lambdarank
feature_names=Column_0 Column_1 Column_2 Column_3 Column_4 Column_5 Column_6 Column_7 Column_8 Column_9 Column_10 Column_11
feature_infos=[0.19508382678031921:0.73644095659255981] [0.26000000000000001:9242.5799999999999] [1.1299999999999999:5] [10:264013] [1990:2023] [3.2083333333333335:4.1080000000000005] [12:39] [0.53535526817048773:1.1252030356095868] [1.5357142857142858:5] [1:1593] [8.8084602355957031:45.374176025390625] [0.063100151717662811:0.10526806116104126]
tree_sizes=6693 6663

Tree=0
num_leaves=63
num_cat=0
split_feature=9 9 8 9 8 9 10 11 0 7 3 5 3 8 8 8 10 5 10 0 0 3 7 11 0 7 11 0 8 7 5 10 11 3 10 5 9 10 10 5 5 3 6 1 6 1 5 9 0 3 1 11 0 0 5 3 3 6 5 3 0 10
split_gain=70.9161 9.19181 8.76525 10.7545 7.3888 7.18412 4.98852 5.33451 4.5512 5.0692 4.93758 4.98323 4.5246 4.0044 3.27938 4.69155 4.27316 3.88322 3.28295 2.80682 3.78777 4.4906 4.23377 4.09098 4.06721 2.2667 2.85 4.08516 2.00317 4.09063 1.89416 1.87144 1.82933 1.79922 1.36759 1.32099 2.29387 1.29996 1.19104 1.073 2.9721 1.12553 0.93973 2.17575 0.915107 1.3132 1.3187 0.900873 0.850677 0.809951 0.698564 0.664625 1.22915 0.610978 0.600831 1.2403 1.05058 0.56532 1.4757 1.64225 0.883414 0.505335
threshold=72.500000000000014 367.50000000000006 3.8799038461538466 35.500000000000007 3.9132763975155282 60.500000000000007 20.059297561645511 0.084690447896718993 0.37293709814548498 0.92626467441533189 708.00000000000011 3.9848631239935592 58644.000000000007 3.2676877470355739 2.8554597701149431 3.5182942057942062 37.913776397705085 3.6180827886710243 41.538900375366218 0.43699927628040319 0.4185380637645722 254.50000000000003 0.87718784382510984 0.085516382008790984 0.35419043898582464 0.92626467441533189 0.086808465421199812 0.34717971086502081 3.200505050505051 0.92526068995210697 3.8012019230769236 40.725866317749031 0.08700235560536386 1046.0000000000002 32.836460113525398 3.7305161290322584 62.500000000000007 20.059297561645511 14.204189777374269 3.5846666666666671 3.5759310344827591 6283.0000000000009 21.500000000000004 58.830000000000005 21.500000000000004 482.97000000000008 3.711490683229814 68.500000000000014 0.30740331113338476 55.500000000000007 342.07000000000005 0.087855760008096709 0.4534857720136643 0.22627544403076175 3.8490000000000006 72.500000000000014 188.00000000000003 24.500000000000004 3.7189366786140985 99.500000000000014 0.25631313025951391 35.822776794433601
decision_type=2 2 2 2 2 2 2 2 2 2 2 2 2 2 2 2 2 2 2 2 2 2 2 2 2 2 2 2 2 2 2 2 2 2 2 2 2 2 2 2 2 2 2 2 2 2 2 2 2 2 2 2 2 2 2 2 2 2 2 2 2 2
left_child=2 14 6 4 -4 8 7 -1 9 10 11 -5 -6 35 16 17 -2 61 19 20 21 22 -17 -24 25 26 30 38 29 49 -23 53 -27 34 -32 -9 -37 -35 -28 40 47 -41 -12 -44 45 -3 -47 -8 -11 -19 -40 52 -10 -30 -46 -56 -57 -55 -59 -60 -61 -16
right_child=1 44 3 5 12 -7 39 13 51 48 42 -13 -14 -15 15 18 -18 28 -20 -21 -22 24 23 -25 -26 32 27 -29 31 -31 33 -33 -34 37 -36 36 -38 -39 50 41 -42 -43 43 -45 54 46 -48 -49 -50 -51 -52 -53 -54 57 55 56 -58 58 59 60 -62 -63
leaf_value=-0.0999999999999997 -0.099999999999999686 0.09999999999999995 0.071204547032659965 -0.10000000000000003 -0.094639238222620603 -0.10000000000000001 -0.096280397028460113 0.094454220892269833 0.0059667767394427189 0.084951740630030692 0.075080049081862513 0.068218572608505057 0.074458175911339228 -0.099999999999999825 -0.099999999999999103 -0.091817130885882781 0.051591441237850193 -0.0037237022048304102 -0.10000000000000001 -0.076417047917234165 0.099172129977882106 0.08048416966704118 -0.09999999999999977 0.055325367795859254 -0.08381676326549764 -0.099999999999999645 0.033330211842513752 0.099999999999999867 0.0017924795962834018 0.077692740294389315 -0.099999999999999686 -0.0084324675701507625 0.039959534876700425 0.095166978066617045 0.044474030346198179 -0.0999999999999997 0.090413728996385737 0.012877390021718532 -0.099999999999999922 -0.096184567010130992 0.038571821569590353 -0.013274332150249361 -0.0999999999999997 0.07094792786658978 0.086825373290423072 -0.045670557247741467 0.051202150281817231 0.019890278762280042 0.019912407473551559 -0.094413917628196689 -0.0029195339406296733 0.093860218176226154 0.096541389457295068 0.089205126727150932 0.091841398624954787 0.073886559890886369 -0.032396469495415567 0.092636327494828391 0.069633053702922984 0.035135522006848878 -0.093856735870778529 -0.010435388665085116
leaf_weight=1.3548270012252062 1.11499900009949 0.82320410013198797 0.83703894400969314 2.4732690508244546 7.1778996369685046 1.4248362923099183 1.9804981873603535 1.1039045865181836 0.82254650589311518 1.3470475569483826 0.84003133000805952 0.53559185611084092 0.41866472375113506 0.49346916354261328 0.3935845391824867 1.6573426070972446 0.79729846591362719 0.42415660573169522 0.60845151846296985 0.74920341651886602 1.467848238069563 4.665271048492281 0.57645270833745632 1.6020634043961761 0.71720328473020423 0.50048269331455308 0.30513099418021772 0.62695199251174916 0.26055935537442287 1.3019057053606955 0.41098834667354855 0.68772900872863907 0.43760531418956816 0.91546758147887874 0.27234614547342062 0.28934222867246706 0.34887210372835398 1.0087886322289703 0.83954949886538066 12.146905716072066 0.60877457738388319 0.42361232626717615 0.32336631696671247 0.43858300428837538 9.3113329131156188 0.49479634966701258 1.211383157642558 0.18223838508129109 0.80212109489366401 0.58678124722791836 0.23778660176321864 1.5443973452784119 0.68776031769812107 5.4450224546599184 1.1604277323931449 0.41701741307042528 0.52550869144033641 1.748309394461103 0.7795076025649903 0.21945290383882821 0.33588952012360096 0.26253947883378714
leaf_count=66 62 2 16 100 414 66 122 7 20 19 8 12 8 41 29 93 17 12 38 35 6 46 30 47 32 22 8 2 11 15 16 18 17 4 7 20 6 18 51 615 7 15 18 9 68 18 12 4 17 44 10 11 3 46 6 3 17 14 12 10 22 19
internal_value=-0.000535623 0.0414708 -0.0504794 -0.0271076 -0.0697848 0.00491525 -0.0747657 -0.0217113 0.0201462 -0.00274169 -0.0323021 -0.0700563 -0.0853199 0.0257338 0.026691 0.0307319 -0.0367966 0.0542274 0.0141166 0.0182033 0.0225681 0.0149569 -0.0315921 0.014225 0.0312819 0.0393588 0.0468444 -0.00586433 0.0608163 0.0190972 0.0614073 0.0709983 -0.0347108 0.0272767 -0.0424192 0.0613489 0.00408735 0.0520268 -0.053874 -0.0871817 -0.0590208 -0.0933906 0.0386082 -0.00160126 0.0753439 0.0481335 0.0231088 -0.0864915 0.0606775 -0.0563633 -0.0785727 0.0707966 0.0472125 0.0772138 0.0813737 0.057235 0.0146281 0.0795182 0.0624105 0.0228225 -0.0428833 -0.0641619
internal_weight=84.5059 45.9003 38.6056 19.6732 8.4336 11.2396 18.9324 3.59042 9.81471 6.76001 4.61084 3.00886 7.59656 2.23559 31.9567 30.0444 1.9123 12.4454 17.5989 16.9905 16.2413 14.7734 3.83586 2.17852 10.9376 10.2204 9.28228 2.00942 11.7893 2.31284 7.27286 9.47647 0.938088 2.60759 0.683334 1.74212 0.638214 1.92426 1.38247 15.342 2.77151 12.5705 1.60198 0.761949 13.9437 2.52938 1.70618 2.16274 2.14917 1.01094 1.07734 3.0547 1.51031 8.78874 11.4143 2.10295 0.942526 8.52818 3.08316 1.33485 0.555342 0.656124
internal_count=2563 939 1624 721 438 283 903 140 217 183 147 112 422 74 813 734 79 252 482 444 409 403 170 77 233 201 162 71 204 71 91 133 39 45 23 33 26 22 69 763 133 630 35 27 126 32 30 126 36 56 61 34 23 115 94 26 20 104 58 44 32 48
is_linear=0
shrinkage=0.05


Tree=1
num_leaves=63
num_cat=0
split_feature=9 1 0 1 9 2 0 0 5 10 9 10 7 3 2 5 6 0 9 10 1 0 5 0 11 11 10 1 1 0 11 2 5 6 11 6 5 3 2 2 6 9 3 3 7 7 7 10 5 5 1 5 0 1 9 7 0 10 10 10 1 1
split_gain=86.4307 22.5054 14.5468 12.8349 16.5634 22.2111 16.4161 12.4052 11.3067 9.42236 10.0105 8.41735 8.22588 8.20886 10.7369 8.53719 16.7554 7.90989 7.63562 13.0951 13.2531 9.80748 7.4016 12.0938 7.1959 14.6213 6.4962 6.26651 14.1416 6.24796 16.0744 10.1744 6.6434 5.98 5.85503 10.5523 6.33716 8.94064 6.12903 11.4645 5.2902 9.05305 5.60708 10.5833 5.14662 4.55241 12.1488 4.18837 4.11384 6.71584 3.66159 3.76859 4.28499 3.61925 3.37888 3.2623 11.7639 3.09747 3.04159 2.94081 2.70608 2.65459
threshold=35.500000000000007 783.42000000000019 0.49746096134185797 561.5100000000001 86.500000000000014 3.4150000000000005 0.25312611460685736 0.21283148974180224 3.45506072874494 34.810842514038093 375.00000000000006 18.965678215026859 0.94613696406509795 375.00000000000006 3.6950000000000007 3.5979166666666669 20.500000000000004 0.22246814519166949 88.500000000000014 37.913776397705085 159.46000000000001 0.29439173638820654 3.711490683229814 0.29502327740192419 0.091023102402687087 0.097436219453811659 26.439225196838382 111.03000000000002 117.56000000000002 0.35548695921897894 0.082219053059816374 3.4450000000000007 3.4014423076923079 25.500000000000004 0.097848162055015578 28.500000000000004 3.6944285714285718 58644.000000000007 2.7150000000000003 2.7050000000000005 23.500000000000004 139.50000000000003 999.00000000000011 5547.0000000000009 0.85195621646575548 0.97935679010610588 0.86339462783788223 21.801594734191898 3.6693181818181824 3.5341511936339525 177.79500000000002 3.8110547667342805 0.34629343450069433 98.835000000000022 211.50000000000003 0.80952794021920527 0.3115102499723435 11.019104957580568 34.144329071044929 40.587141036987312 267.29000000000008 211.98500000000004
decision_type=2 2 2 2 2 2 2 2 2 2 2 2 2 2 2 2 2 2 2 2 2 2 2 2 2 2 2 2 2 2 2 2 2 2 2 2 2 2 2 2 2 2 2 2 2 2 2 2 2 2 2 2 2 2 2 2 2 2 2 2 2 2
left_child=2 3 7 4 5 11 -7 -1 -6 10 17 12 57 29 -15 -16 -17 -10 -11 53 -21 54 23 -3 27 58 47 -19 -29 30 -8 -32 -33 61 36 -36 37 38 39 -9 41 -30 48 -44 -5 46 50 -27 49 -42 -43 -52 -53 -20 -22 56 -50 -2 -26 -18 -35 -23
right_child=1 22 -4 44 8 6 13 34 9 18 -12 -13 -14 14 15 16 59 24 19 20 21 33 -24 -25 25 26 -28 28 40 -31 31 32 -34 60 35 -37 -38 -39 -40 -41 42 45 43 -45 -46 -47 -48 -49 55 -51 51 52 -54 -55 -56 -57 -58 -59 -60 -61 -62 -63
leaf_value=0.077372669601420779 0.016699919224107521 -0.057676486538222806 0.059955865759666875 -0.0054280302268860997 -0.092841203676170547 -0.085986586154901914 0.067745508959845255 -0.093262651796931384 -0.082076341763322708 0.060263994290200767 0.077119412402302565 -0.083332726841381821 0.077164241958892946 -0.097349767220827055 0.07185893653314325 0.079705800557025017 -0.098513839976994186 0.073307757737140031 0.030755519462241074 -0.09741330009737266 -0.095201877843981111 0.096563742210814485 0.069275909411399855 0.054706213449717239 -0.088546083713928803 0.029062403697655965 0.085767408711490203 -0.097632836625112962 -0.096297850355870407 0.066388531768321962 0.078474011239080682 0.04700286316755703 -0.095716702089471889 -0.097637367823500076 -0.098264004390136342 0.075239257343667515 -0.091320740224275818 0.099731522334670239 -0.080186618502684437 0.099966965360162474 0.070053076772280884 0.096616064612304584 -0.060256628725614159 0.062626631284359663 -0.099735799183067089 0.05551065881381681 -0.098099161325054945 -0.09756776718120691 -0.069030498200633866 -0.063872440199894895 0.06298005529518523 -0.088042045049482959 0.022270977323524881 -0.091835806146368951 -0.0031153454472332438 0.076476115795636818 0.074006899846398508 -0.089840542980773708 0.032224682271108647 0.0088400945224328224 0.019487684938578439 0.041687557912479078
leaf_weight=1.451111776754259 1.0080229016020923 3.4897678568959218 2.4018415473401538 2.3666129950433961 2.1179212708957484 4.151534888893365 7.1068616155535 1.5708958590403173 1.6718683503568161 4.2234690431505468 10.700125036761163 11.584076479077337 1.8728420697152612 2.9119269251823416 3.7446056399494392 2.5904464200139046 3.7089823200367391 8.9149823691695911 0.68137389048934238 2.5211313492618528 1.6143162846565235 4.4666357636451703 22.537866285070777 7.6232259012758732 4.30394846992567 1.8646125514060261 3.5679450798779726 2.1485631838440886 1.7522300789132739 10.061571424826978 1.4570974409580228 0.99421047419309605 4.5333115458488464 0.78722798079252188 1.7108275871723881 1.7966321222484112 25.783363599795848 0.94025546312332231 9.402999500744043 1.5011837482452393 1.9895421527326136 1.7062648534774796 3.2805342469364396 3.760917916893959 3.7216099016368389 6.6022800588980308 2.330345188267529 1.0049253888428209 1.9555674549192215 1.7678615935146806 2.4144624024629593 1.3609532229602339 2.4926282912492752 5.1721349027939141 2.6013295277953148 15.549555890262125 5.4253744147717953 2.1106716375797987 0.59318768978118885 0.77043893933296193 1.3201432786881921 4.3500438779592514
leaf_count=10 4 12 12 12 40 70 38 41 26 19 20 255 8 41 8 11 42 24 3 52 15 5 39 17 83 13 8 24 37 33 6 4 90 15 22 7 682 2 275 2 5 2 43 13 15 10 23 14 30 15 9 15 12 65 18 40 20 35 4 10 18 20
internal_value=0.00189521 0.0152501 -0.0598781 0.00829441 0.0107686 -0.0109285 0.00840147 -0.0663962 0.0216356 0.0237458 0.0318233 -0.0599439 -0.0056643 0.0187463 -0.0121295 0.0108171 -0.0215141 0.0254843 -0.00163561 -0.0127536 0.00872777 0.0264029 0.0528097 0.0194151 0.0278888 -0.00880729 0.0407232 0.0344439 0.028091 0.0362932 0.0148046 -0.0390628 -0.0700464 0.0514023 -0.0712813 -0.00939013 -0.0768193 -0.0489484 -0.0601545 0.00115976 0.0332472 0.011885 0.0450648 0.00537669 -0.0630765 0.023097 0.00232932 -0.0152841 0.0555363 0.00704101 0.0316777 0.0140004 -0.0166878 -0.0775656 -0.0383785 0.0634827 0.0361094 -0.0554046 -0.0739172 -0.0800495 -0.0242655 0.0694885
internal_weight=261.919 215.36 46.5591 181.709 175.621 58.6066 42.031 44.1573 117.014 114.896 87.1587 16.5756 4.99154 37.8795 13.7264 10.8145 7.06987 76.4586 27.7378 23.5143 17.6608 15.1397 33.6509 11.113 74.7867 11.3346 6.43748 63.4521 54.5371 24.1531 14.0915 6.98462 5.52752 10.9241 42.7062 3.50746 39.1987 13.4153 12.4751 3.07208 52.3885 18.6592 33.7294 7.04145 6.08822 16.9069 10.3047 2.86954 26.6879 3.7574 7.97431 6.26804 3.85358 5.85351 4.21565 22.9305 7.38094 3.11869 4.89714 4.47942 2.10737 8.81668
internal_count=2563 1510 1053 1442 1415 655 353 1041 760 720 490 302 47 283 112 71 63 470 230 211 143 91 68 29 444 122 35 322 298 171 138 100 94 58 1031 29 1002 320 318 43 274 108 166 56 27 71 61 27 110 20 38 36 27 68 33 90 50 39 87 52 33 25
is_linear=0
shrinkage=0.05


end of trees

feature_importances:
Column_0=18
Column_5=17
Column_10=16
Column_3=13
Column_1=12
Column_9=12
Column_7=9
Column_11=9
Column_6=7
Column_8=6
Column_2=5

parameters:
[boosting: gbdt]
[objective: lambdarank]
[metric: ndcg]
[tree_learner: serial]
[device_type: cpu]
[data_sample_strategy: bagging]
[data: ]
[valid: ]
[num_iterations: 200]
[learning_rate: 0.05]
[num_leaves: 63]
[num_threads: -1]
[seed: 0]
[deterministic: 0]
[force_col_wise: 0]
[force_row_wise: 0]
[histogram_pool_size: -1]
[max_depth: -1]
[min_data_in_leaf: 10]
[min_sum_hessian_in_leaf: 0.001]
[bagging_fraction: 0.8]
[pos_bagging_fraction: 1]
[neg_bagging_fraction: 1]
[bagging_freq: 5]
[bagging_seed: 3]
[bagging_by_query: 0]
[feature_fraction: 0.8]
[feature_fraction_bynode: 1]
[feature_fraction_seed: 2]
[extra_trees: 0]
[extra_seed: 6]
[early_stopping_round: 0]
[early_stopping_min_delta: 0]
[first_metric_only: 0]
[max_delta_step: 0]
[lambda_l1: 0]
[lambda_l2: 0]
[linear_lambda: 0]
[min_gain_to_split: 0]
[drop_rate: 0.1]
[max_drop: 50]
[skip_drop: 0.5]
[xgboost_dart_mode: 0]
[uniform_drop: 0]
[drop_seed: 4]
[top_rate: 0.2]
[other_rate: 0.1]
[min_data_per_group: 100]
[max_cat_threshold: 32]
[cat_l2: 10]
[cat_smooth: 10]
[max_cat_to_onehot: 4]
[top_k: 20]
[monotone_constraints: ]
[monotone_constraints_method: basic]
[monotone_penalty: 0]
[feature_contri: ]
[forcedsplits_filename: ]
[refit_decay_rate: 0.9]
[cegb_tradeoff: 1]
[cegb_penalty_split: 0]
[cegb_penalty_feature_lazy: ]
[cegb_penalty_feature_coupled: ]
[path_smooth: 0]
[interaction_constraints: ]
[verbosity: -1]
[saved_feature_importance_type: 0]
[use_quantized_grad: 0]
[num_grad_quant_bins: 4]
[quant_train_renew_leaf: 0]
[stochastic_rounding: 1]
[linear_tree: 0]
[max_bin: 255]
[max_bin_by_feature: ]
[min_data_in_bin: 3]
[bin_construct_sample_cnt: 200000]
[data_random_seed: 1]
[is_enable_sparse: 1]
[enable_bundle: 1]
[use_missing: 1]
[zero_as_missing: 0]
[feature_pre_filter: 1]
[pre_partition: 0]
[two_round: 0]
[header: 0]
[label_column: ]
[weight_column: ]
[group_column: ]
[ignore_column: ]
[categorical_feature: ]
[forcedbins_filename: ]
[precise_float_parser: 0]
[parser_config_file: ]
[objective_seed: 5]
[num_class: 1]
[is_unbalance: 0]
[scale_pos_weight: 1]
[sigmoid: 1]
[boost_from_average: 1]
[reg_sqrt: 0]
[alpha: 0.9]
[fair_c: 1]
[poisson_max_delta_step: 0.7]
[tweedie_variance_power: 1.5]
[lambdarank_truncation_level: 30]
[lambdarank_norm: 1]
[label_gain: ]
[lambdarank_position_bias_regularization: 0]
[eval_at: 5,10]
[multi_error_top_k: 1]
[auc_mu_weights: ]
[num_machines: 1]
[local_listen_port: 12400]
[time_out: 120]
[machine_list_filename: ]
[machines: ]
[gpu_platform_id: -1]
[gpu_device_id: -1]
[gpu_use_dp: 0]
[num_gpu: 1]

end of parameters

pandas_categorical:null
